digraph Tree {
node [shape=box] ;
0 [label="spore-print-color <= 2.5\ngini = 0.497\nsamples = 6732\nvalue = [3627, 3105]\nclass = edible"] ;
1 [label="gill-size <= 0.5\ngini = 0.191\nsamples = 3339\nvalue = [2981, 358]\nclass = edible"] ;
0 -> 1 [labeldistance=2.5, labelangle=45, headlabel="True"] ;
2 [label="gini = 0.0\nsamples = 2858\nvalue = [2858, 0]\nclass = edible"] ;
1 -> 2 ;
3 [label="cap-surface <= 1.0\ngini = 0.381\nsamples = 481\nvalue = [123, 358]\nclass = poisonous"] ;
1 -> 3 ;
4 [label="stalk-root <= 2.0\ngini = 0.491\nsamples = 178\nvalue = [101, 77]\nclass = edible"] ;
3 -> 4 ;
5 [label="stalk-shape <= 0.5\ngini = 0.327\nsamples = 97\nvalue = [20, 77]\nclass = poisonous"] ;
4 -> 5 ;
6 [label="gini = 0.0\nsamples = 77\nvalue = [0, 77]\nclass = poisonous"] ;
5 -> 6 ;
7 [label="gini = 0.0\nsamples = 20\nvalue = [20, 0]\nclass = edible"] ;
5 -> 7 ;
8 [label="gini = 0.0\nsamples = 81\nvalue = [81, 0]\nclass = edible"] ;
4 -> 8 ;
9 [label="odor <= 1.5\ngini = 0.135\nsamples = 303\nvalue = [22, 281]\nclass = poisonous"] ;
3 -> 9 ;
10 [label="gini = 0.0\nsamples = 22\nvalue = [22, 0]\nclass = edible"] ;
9 -> 10 ;
11 [label="gini = 0.0\nsamples = 281\nvalue = [0, 281]\nclass = poisonous"] ;
9 -> 11 ;
12 [label=" ring-number <= 1.5\ngini = 0.308\nsamples = 3393\nvalue = [646, 2747]\nclass = poisonous"] ;
0 -> 12 [labeldistance=2.5, labelangle=-45, headlabel="False"] ;
13 [label="gill-spacing <= 0.5\ngini = 0.138\nsamples = 2900\nvalue = [217, 2683]\nclass = poisonous"] ;
12 -> 13 ;
14 [label="veil-color <= 1.5\ngini = 0.08\nsamples = 2789\nvalue = [116, 2673]\nclass = poisonous"] ;
13 -> 14 ;
15 [label="gini = 0.0\nsamples = 75\nvalue = [75, 0]\nclass = edible"] ;
14 -> 15 ;
16 [label="stalk-surface-below-ring <= 0.5\ngini = 0.03\nsamples = 2714\nvalue = [41, 2673]\nclass = poisonous"] ;
14 -> 16 ;
17 [label="bruises <= 0.5\ngini = 0.392\nsamples = 153\nvalue = [41, 112]\nclass = poisonous"] ;
16 -> 17 ;
18 [label="gini = 0.0\nsamples = 112\nvalue = [0, 112]\nclass = poisonous"] ;
17 -> 18 ;
19 [label="gini = 0.0\nsamples = 41\nvalue = [41, 0]\nclass = edible"] ;
17 -> 19 ;
20 [label="gini = 0.0\nsamples = 2561\nvalue = [0, 2561]\nclass = poisonous"] ;
16 -> 20 ;
21 [label="population <= 2.5\ngini = 0.164\nsamples = 111\nvalue = [101, 10]\nclass = edible"] ;
13 -> 21 ;
22 [label="gini = 0.0\nsamples = 10\nvalue = [0, 10]\nclass = poisonous"] ;
21 -> 22 ;
23 [label="gini = 0.0\nsamples = 101\nvalue = [101, 0]\nclass = edible"] ;
21 -> 23 ;
24 [label="spore-print-color <= 5.5\ngini = 0.226\nsamples = 493\nvalue = [429, 64]\nclass = edible"] ;
12 -> 24 ;
25 [label="gini = 0.0\nsamples = 64\nvalue = [0, 64]\nclass = poisonous"] ;
24 -> 25 ;
26 [label="gini = 0.0\nsamples = 429\nvalue = [429, 0]\nclass = edible"] ;
24 -> 26 ;
}